digraph Tree {
node [shape=box] ;
0 [label="middle_middle_square <= 1.5\nmse = 0.226\nsamples = 958\nvalue = 0.653"] ;
1 [label="top_right_square <= 1.5\nmse = 0.175\nsamples = 618\nvalue = 0.773"] ;
0 -> 1 [labeldistance=2.5, labelangle=45, headlabel="True"] ;
2 [label="bottom_left_square <= 1.5\nmse = 0.138\nsamples = 386\nvalue = 0.834"] ;
1 -> 2 ;
3 [label="mse = 0.0\nsamples = 216\nvalue = 1.0"] ;
2 -> 3 ;
4 [label="bottom_right_square <= 1.5\nmse = 0.235\nsamples = 170\nvalue = 0.624"] ;
2 -> 4 ;
5 [label="top_left_square <= 1.5\nmse = 0.196\nsamples = 108\nvalue = 0.731"] ;
4 -> 5 ;
6 [label="mse = 0.0\nsamples = 60\nvalue = 1.0"] ;
5 -> 6 ;
7 [label="middle_left_square <= 1.5\nmse = 0.239\nsamples = 48\nvalue = 0.396"] ;
5 -> 7 ;
8 [label="middle_right_square <= 1.5\nmse = 0.086\nsamples = 21\nvalue = 0.905"] ;
7 -> 8 ;
9 [label="mse = 0.0\nsamples = 16\nvalue = 1.0"] ;
8 -> 9 ;
10 [label="bottom_right_square <= 0.5\nmse = 0.24\nsamples = 5\nvalue = 0.6"] ;
8 -> 10 ;
11 [label="mse = 0.0\nsamples = 2\nvalue = 1.0"] ;
10 -> 11 ;
12 [label="top_right_square <= 0.5\nmse = 0.222\nsamples = 3\nvalue = 0.333"] ;
10 -> 12 ;
13 [label="mse = 0.0\nsamples = 1\nvalue = 1.0"] ;
12 -> 13 ;
14 [label="mse = 0.0\nsamples = 2\nvalue = 0.0"] ;
12 -> 14 ;
15 [label="mse = 0.0\nsamples = 27\nvalue = 0.0"] ;
7 -> 15 ;
16 [label="bottom_middle_square <= 1.5\nmse = 0.246\nsamples = 62\nvalue = 0.435"] ;
4 -> 16 ;
17 [label="middle_left_square <= 1.5\nmse = 0.132\nsamples = 32\nvalue = 0.844"] ;
16 -> 17 ;
18 [label="top_middle_square <= 1.5\nmse = 0.045\nsamples = 21\nvalue = 0.952"] ;
17 -> 18 ;
19 [label="mse = 0.0\nsamples = 16\nvalue = 1.0"] ;
18 -> 19 ;
20 [label="middle_right_square <= 1.5\nmse = 0.16\nsamples = 5\nvalue = 0.8"] ;
18 -> 20 ;
21 [label="mse = 0.0\nsamples = 4\nvalue = 1.0"] ;
20 -> 21 ;
22 [label="mse = 0.0\nsamples = 1\nvalue = 0.0"] ;
20 -> 22 ;
23 [label="top_left_square <= 1.5\nmse = 0.231\nsamples = 11\nvalue = 0.636"] ;
17 -> 23 ;
24 [label="top_middle_square <= 1.5\nmse = 0.109\nsamples = 8\nvalue = 0.875"] ;
23 -> 24 ;
25 [label="mse = 0.0\nsamples = 7\nvalue = 1.0"] ;
24 -> 25 ;
26 [label="mse = 0.0\nsamples = 1\nvalue = 0.0"] ;
24 -> 26 ;
27 [label="mse = 0.0\nsamples = 3\nvalue = 0.0"] ;
23 -> 27 ;
28 [label="mse = 0.0\nsamples = 30\nvalue = 0.0"] ;
16 -> 28 ;
29 [label="bottom_right_square <= 1.5\nmse = 0.22\nsamples = 232\nvalue = 0.672"] ;
1 -> 29 ;
30 [label="top_left_square <= 1.5\nmse = 0.175\nsamples = 155\nvalue = 0.774"] ;
29 -> 30 ;
31 [label="mse = 0.0\nsamples = 93\nvalue = 1.0"] ;
30 -> 31 ;
32 [label="top_middle_square <= 1.5\nmse = 0.246\nsamples = 62\nvalue = 0.435"] ;
30 -> 32 ;
33 [label="middle_left_square <= 1.5\nmse = 0.132\nsamples = 32\nvalue = 0.844"] ;
32 -> 33 ;
34 [label="bottom_middle_square <= 1.5\nmse = 0.045\nsamples = 21\nvalue = 0.952"] ;
33 -> 34 ;
35 [label="mse = 0.0\nsamples = 16\nvalue = 1.0"] ;
34 -> 35 ;
36 [label="middle_right_square <= 1.5\nmse = 0.16\nsamples = 5\nvalue = 0.8"] ;
34 -> 36 ;
37 [label="mse = 0.0\nsamples = 4\nvalue = 1.0"] ;
36 -> 37 ;
38 [label="mse = 0.0\nsamples = 1\nvalue = 0.0"] ;
36 -> 38 ;
39 [label="bottom_left_square <= 1.5\nmse = 0.231\nsamples = 11\nvalue = 0.636"] ;
33 -> 39 ;
40 [label="bottom_middle_square <= 1.5\nmse = 0.109\nsamples = 8\nvalue = 0.875"] ;
39 -> 40 ;
41 [label="mse = 0.0\nsamples = 7\nvalue = 1.0"] ;
40 -> 41 ;
42 [label="mse = 0.0\nsamples = 1\nvalue = 0.0"] ;
40 -> 42 ;
43 [label="mse = 0.0\nsamples = 3\nvalue = 0.0"] ;
39 -> 43 ;
44 [label="mse = 0.0\nsamples = 30\nvalue = 0.0"] ;
32 -> 44 ;
45 [label="middle_right_square <= 1.5\nmse = 0.249\nsamples = 77\nvalue = 0.468"] ;
29 -> 45 ;
46 [label="top_left_square <= 0.5\nmse = 0.149\nsamples = 44\nvalue = 0.818"] ;
45 -> 46 ;
47 [label="mse = 0.0\nsamples = 12\nvalue = 1.0"] ;
46 -> 47 ;
48 [label="bottom_left_square <= 0.5\nmse = 0.188\nsamples = 32\nvalue = 0.75"] ;
46 -> 48 ;
49 [label="mse = 0.0\nsamples = 7\nvalue = 1.0"] ;
48 -> 49 ;
50 [label="top_middle_square <= 0.5\nmse = 0.218\nsamples = 25\nvalue = 0.68"] ;
48 -> 50 ;
51 [label="mse = 0.0\nsamples = 5\nvalue = 1.0"] ;
50 -> 51 ;
52 [label="bottom_middle_square <= 0.5\nmse = 0.24\nsamples = 20\nvalue = 0.6"] ;
50 -> 52 ;
53 [label="mse = 0.0\nsamples = 2\nvalue = 1.0"] ;
52 -> 53 ;
54 [label="top_middle_square <= 1.5\nmse = 0.247\nsamples = 18\nvalue = 0.556"] ;
52 -> 54 ;
55 [label="bottom_middle_square <= 1.5\nmse = 0.231\nsamples = 11\nvalue = 0.636"] ;
54 -> 55 ;
56 [label="mse = 0.0\nsamples = 5\nvalue = 1.0"] ;
55 -> 56 ;
57 [label="bottom_left_square <= 1.5\nmse = 0.222\nsamples = 6\nvalue = 0.333"] ;
55 -> 57 ;
58 [label="middle_left_square <= 1.5\nmse = 0.222\nsamples = 3\nvalue = 0.667"] ;
57 -> 58 ;
59 [label="mse = 0.0\nsamples = 2\nvalue = 1.0"] ;
58 -> 59 ;
60 [label="mse = 0.0\nsamples = 1\nvalue = 0.0"] ;
58 -> 60 ;
61 [label="mse = 0.0\nsamples = 3\nvalue = 0.0"] ;
57 -> 61 ;
62 [label="top_left_square <= 1.5\nmse = 0.245\nsamples = 7\nvalue = 0.429"] ;
54 -> 62 ;
63 [label="middle_left_square <= 1.5\nmse = 0.188\nsamples = 4\nvalue = 0.75"] ;
62 -> 63 ;
64 [label="mse = 0.0\nsamples = 3\nvalue = 1.0"] ;
63 -> 64 ;
65 [label="mse = 0.0\nsamples = 1\nvalue = 0.0"] ;
63 -> 65 ;
66 [label="mse = 0.0\nsamples = 3\nvalue = 0.0"] ;
62 -> 66 ;
67 [label="mse = 0.0\nsamples = 33\nvalue = 0.0"] ;
45 -> 67 ;
68 [label="top_left_square <= 1.5\nmse = 0.246\nsamples = 340\nvalue = 0.435"] ;
0 -> 68 [labeldistance=2.5, labelangle=-45, headlabel="False"] ;
69 [label="bottom_left_square <= 1.5\nmse = 0.25\nsamples = 237\nvalue = 0.485"] ;
68 -> 69 ;
70 [label="middle_left_square <= 1.5\nmse = 0.245\nsamples = 153\nvalue = 0.569"] ;
69 -> 70 ;
71 [label="top_middle_square <= 1.5\nmse = 0.217\nsamples = 94\nvalue = 0.681"] ;
70 -> 71 ;
72 [label="top_right_square <= 1.5\nmse = 0.061\nsamples = 46\nvalue = 0.935"] ;
71 -> 72 ;
73 [label="mse = 0.0\nsamples = 27\nvalue = 1.0"] ;
72 -> 73 ;
74 [label="bottom_right_square <= 1.5\nmse = 0.133\nsamples = 19\nvalue = 0.842"] ;
72 -> 74 ;
75 [label="mse = 0.0\nsamples = 12\nvalue = 1.0"] ;
74 -> 75 ;
76 [label="middle_right_square <= 1.5\nmse = 0.245\nsamples = 7\nvalue = 0.571"] ;
74 -> 76 ;
77 [label="mse = 0.0\nsamples = 4\nvalue = 1.0"] ;
76 -> 77 ;
78 [label="mse = 0.0\nsamples = 3\nvalue = 0.0"] ;
76 -> 78 ;
79 [label="bottom_middle_square <= 1.5\nmse = 0.246\nsamples = 48\nvalue = 0.438"] ;
71 -> 79 ;
80 [label="mse = 0.0\nsamples = 21\nvalue = 1.0"] ;
79 -> 80 ;
81 [label="mse = 0.0\nsamples = 27\nvalue = 0.0"] ;
79 -> 81 ;
82 [label="middle_right_square <= 1.5\nmse = 0.238\nsamples = 59\nvalue = 0.39"] ;
70 -> 82 ;
83 [label="bottom_left_square <= 0.5\nmse = 0.164\nsamples = 29\nvalue = 0.793"] ;
82 -> 83 ;
84 [label="mse = 0.0\nsamples = 10\nvalue = 1.0"] ;
83 -> 84 ;
85 [label="top_left_square <= 0.5\nmse = 0.216\nsamples = 19\nvalue = 0.684"] ;
83 -> 85 ;
86 [label="mse = 0.0\nsamples = 7\nvalue = 1.0"] ;
85 -> 86 ;
87 [label="middle_right_square <= 0.5\nmse = 0.25\nsamples = 12\nvalue = 0.5"] ;
85 -> 87 ;
88 [label="bottom_middle_square <= 1.5\nmse = 0.16\nsamples = 5\nvalue = 0.8"] ;
87 -> 88 ;
89 [label="mse = 0.0\nsamples = 3\nvalue = 1.0"] ;
88 -> 89 ;
90 [label="bottom_right_square <= 0.5\nmse = 0.25\nsamples = 2\nvalue = 0.5"] ;
88 -> 90 ;
91 [label="mse = 0.0\nsamples = 1\nvalue = 1.0"] ;
90 -> 91 ;
92 [label="mse = 0.0\nsamples = 1\nvalue = 0.0"] ;
90 -> 92 ;
93 [label="top_right_square <= 0.5\nmse = 0.204\nsamples = 7\nvalue = 0.286"] ;
87 -> 93 ;
94 [label="mse = 0.0\nsamples = 1\nvalue = 0.0"] ;
93 -> 94 ;
95 [label="bottom_right_square <= 0.5\nmse = 0.222\nsamples = 6\nvalue = 0.333"] ;
93 -> 95 ;
96 [label="mse = 0.0\nsamples = 1\nvalue = 0.0"] ;
95 -> 96 ;
97 [label="bottom_middle_square <= 1.5\nmse = 0.24\nsamples = 5\nvalue = 0.4"] ;
95 -> 97 ;
98 [label="bottom_right_square <= 1.5\nmse = 0.222\nsamples = 3\nvalue = 0.333"] ;
97 -> 98 ;
99 [label="mse = 0.0\nsamples = 1\nvalue = 1.0"] ;
98 -> 99 ;
100 [label="mse = 0.0\nsamples = 2\nvalue = 0.0"] ;
98 -> 100 ;
101 [label="top_right_square <= 1.5\nmse = 0.25\nsamples = 2\nvalue = 0.5"] ;
97 -> 101 ;
102 [label="mse = 0.0\nsamples = 1\nvalue = 1.0"] ;
101 -> 102 ;
103 [label="mse = 0.0\nsamples = 1\nvalue = 0.0"] ;
101 -> 103 ;
104 [label="mse = 0.0\nsamples = 30\nvalue = 0.0"] ;
82 -> 104 ;
105 [label="top_right_square <= 1.5\nmse = 0.222\nsamples = 84\nvalue = 0.333"] ;
69 -> 105 ;
106 [label="top_right_square <= 0.5\nmse = 0.202\nsamples = 39\nvalue = 0.718"] ;
105 -> 106 ;
107 [label="mse = 0.0\nsamples = 3\nvalue = 0.0"] ;
106 -> 107 ;
108 [label="bottom_middle_square <= 0.5\nmse = 0.173\nsamples = 36\nvalue = 0.778"] ;
106 -> 108 ;
109 [label="mse = 0.0\nsamples = 12\nvalue = 1.0"] ;
108 -> 109 ;
110 [label="middle_left_square <= 0.5\nmse = 0.222\nsamples = 24\nvalue = 0.667"] ;
108 -> 110 ;
111 [label="mse = 0.0\nsamples = 7\nvalue = 1.0"] ;
110 -> 111 ;
112 [label="top_middle_square <= 1.5\nmse = 0.249\nsamples = 17\nvalue = 0.529"] ;
110 -> 112 ;
113 [label="middle_right_square <= 0.5\nmse = 0.222\nsamples = 12\nvalue = 0.667"] ;
112 -> 113 ;
114 [label="mse = 0.0\nsamples = 2\nvalue = 1.0"] ;
113 -> 114 ;
115 [label="bottom_right_square <= 1.5\nmse = 0.24\nsamples = 10\nvalue = 0.6"] ;
113 -> 115 ;
116 [label="middle_right_square <= 1.5\nmse = 0.222\nsamples = 6\nvalue = 0.667"] ;
115 -> 116 ;
117 [label="mse = 0.0\nsamples = 3\nvalue = 1.0"] ;
116 -> 117 ;
118 [label="bottom_middle_square <= 1.5\nmse = 0.222\nsamples = 3\nvalue = 0.333"] ;
116 -> 118 ;
119 [label="mse = 0.0\nsamples = 2\nvalue = 0.0"] ;
118 -> 119 ;
120 [label="mse = 0.0\nsamples = 1\nvalue = 1.0"] ;
118 -> 120 ;
121 [label="bottom_middle_square <= 1.5\nmse = 0.25\nsamples = 4\nvalue = 0.5"] ;
115 -> 121 ;
122 [label="mse = 0.0\nsamples = 2\nvalue = 1.0"] ;
121 -> 122 ;
123 [label="mse = 0.0\nsamples = 2\nvalue = 0.0"] ;
121 -> 123 ;
124 [label="middle_left_square <= 1.5\nmse = 0.16\nsamples = 5\nvalue = 0.2"] ;
112 -> 124 ;
125 [label="mse = 0.0\nsamples = 4\nvalue = 0.0"] ;
124 -> 125 ;
126 [label="mse = 0.0\nsamples = 1\nvalue = 1.0"] ;
124 -> 126 ;
127 [label="mse = 0.0\nsamples = 45\nvalue = 0.0"] ;
105 -> 127 ;
128 [label="bottom_right_square <= 1.5\nmse = 0.218\nsamples = 103\nvalue = 0.32"] ;
68 -> 128 ;
129 [label="bottom_right_square <= 0.5\nmse = 0.235\nsamples = 53\nvalue = 0.623"] ;
128 -> 129 ;
130 [label="mse = 0.0\nsamples = 5\nvalue = 0.0"] ;
129 -> 130 ;
131 [label="middle_left_square <= 0.5\nmse = 0.215\nsamples = 48\nvalue = 0.688"] ;
129 -> 131 ;
132 [label="bottom_left_square <= 1.5\nmse = 0.062\nsamples = 15\nvalue = 0.933"] ;
131 -> 132 ;
133 [label="mse = 0.0\nsamples = 12\nvalue = 1.0"] ;
132 -> 133 ;
134 [label="top_right_square <= 1.5\nmse = 0.222\nsamples = 3\nvalue = 0.667"] ;
132 -> 134 ;
135 [label="mse = 0.0\nsamples = 2\nvalue = 1.0"] ;
134 -> 135 ;
136 [label="mse = 0.0\nsamples = 1\nvalue = 0.0"] ;
134 -> 136 ;
137 [label="top_middle_square <= 0.5\nmse = 0.244\nsamples = 33\nvalue = 0.576"] ;
131 -> 137 ;
138 [label="top_right_square <= 1.5\nmse = 0.099\nsamples = 9\nvalue = 0.889"] ;
137 -> 138 ;
139 [label="mse = 0.0\nsamples = 7\nvalue = 1.0"] ;
138 -> 139 ;
140 [label="middle_right_square <= 0.5\nmse = 0.25\nsamples = 2\nvalue = 0.5"] ;
138 -> 140 ;
141 [label="mse = 0.0\nsamples = 1\nvalue = 1.0"] ;
140 -> 141 ;
142 [label="mse = 0.0\nsamples = 1\nvalue = 0.0"] ;
140 -> 142 ;
143 [label="bottom_left_square <= 1.5\nmse = 0.248\nsamples = 24\nvalue = 0.458"] ;
137 -> 143 ;
144 [label="bottom_middle_square <= 1.5\nmse = 0.249\nsamples = 17\nvalue = 0.529"] ;
143 -> 144 ;
145 [label="middle_right_square <= 0.5\nmse = 0.222\nsamples = 12\nvalue = 0.667"] ;
144 -> 145 ;
146 [label="mse = 0.0\nsamples = 2\nvalue = 1.0"] ;
145 -> 146 ;
147 [label="top_right_square <= 1.5\nmse = 0.24\nsamples = 10\nvalue = 0.6"] ;
145 -> 147 ;
148 [label="top_middle_square <= 1.5\nmse = 0.222\nsamples = 6\nvalue = 0.667"] ;
147 -> 148 ;
149 [label="middle_right_square <= 1.5\nmse = 0.222\nsamples = 3\nvalue = 0.333"] ;
148 -> 149 ;
150 [label="mse = 0.0\nsamples = 1\nvalue = 1.0"] ;
149 -> 150 ;
151 [label="mse = 0.0\nsamples = 2\nvalue = 0.0"] ;
149 -> 151 ;
152 [label="mse = 0.0\nsamples = 3\nvalue = 1.0"] ;
148 -> 152 ;
153 [label="top_middle_square <= 1.5\nmse = 0.25\nsamples = 4\nvalue = 0.5"] ;
147 -> 153 ;
154 [label="mse = 0.0\nsamples = 2\nvalue = 1.0"] ;
153 -> 154 ;
155 [label="mse = 0.0\nsamples = 2\nvalue = 0.0"] ;
153 -> 155 ;
156 [label="middle_left_square <= 1.5\nmse = 0.16\nsamples = 5\nvalue = 0.2"] ;
144 -> 156 ;
157 [label="mse = 0.0\nsamples = 4\nvalue = 0.0"] ;
156 -> 157 ;
158 [label="mse = 0.0\nsamples = 1\nvalue = 1.0"] ;
156 -> 158 ;
159 [label="bottom_middle_square <= 1.5\nmse = 0.204\nsamples = 7\nvalue = 0.286"] ;
143 -> 159 ;
160 [label="top_middle_square <= 1.5\nmse = 0.139\nsamples = 6\nvalue = 0.167"] ;
159 -> 160 ;
161 [label="mse = 0.0\nsamples = 5\nvalue = 0.0"] ;
160 -> 161 ;
162 [label="mse = 0.0\nsamples = 1\nvalue = 1.0"] ;
160 -> 162 ;
163 [label="mse = 0.0\nsamples = 1\nvalue = 1.0"] ;
159 -> 163 ;
164 [label="mse = 0.0\nsamples = 50\nvalue = 0.0"] ;
128 -> 164 ;
}
